digraph Tree {
node [shape=box] ;
0 [label="Petal Length <= 2.45\nentropy = 1.581\nsamples = 120\nvalue = [44, 37, 39]"] ;
1 [label="entropy = 0.0\nsamples = 44\nvalue = [44, 0, 0]"] ;
0 -> 1 [labeldistance=2.5, labelangle=45, headlabel="True"] ;
2 [label="Petal Length <= 4.95\nentropy = 1.0\nsamples = 76\nvalue = [0, 37, 39]"] ;
0 -> 2 [labeldistance=2.5, labelangle=-45, headlabel="False"] ;
3 [label="Petal Width <= 1.65\nentropy = 0.398\nsamples = 38\nvalue = [0, 35, 3]"] ;
2 -> 3 ;
4 [label="entropy = 0.0\nsamples = 34\nvalue = [0, 34, 0]"] ;
3 -> 4 ;
5 [label="Sepal Width <= 3.1\nentropy = 0.811\nsamples = 4\nvalue = [0, 1, 3]"] ;
3 -> 5 ;
6 [label="entropy = 0.0\nsamples = 3\nvalue = [0, 0, 3]"] ;
5 -> 6 ;
7 [label="entropy = 0.0\nsamples = 1\nvalue = [0, 1, 0]"] ;
5 -> 7 ;
8 [label="Petal Width <= 1.75\nentropy = 0.297\nsamples = 38\nvalue = [0, 2, 36]"] ;
2 -> 8 ;
9 [label="Petal Width <= 1.55\nentropy = 0.918\nsamples = 6\nvalue = [0, 2, 4]"] ;
8 -> 9 ;
10 [label="entropy = 0.0\nsamples = 3\nvalue = [0, 0, 3]"] ;
9 -> 10 ;
11 [label="Sepal Length <= 6.95\nentropy = 0.918\nsamples = 3\nvalue = [0, 2, 1]"] ;
9 -> 11 ;
12 [label="entropy = 0.0\nsamples = 2\nvalue = [0, 2, 0]"] ;
11 -> 12 ;
13 [label="entropy = 0.0\nsamples = 1\nvalue = [0, 0, 1]"] ;
11 -> 13 ;
14 [label="entropy = 0.0\nsamples = 32\nvalue = [0, 0, 32]"] ;
8 -> 14 ;
}